svm_type c_svc
kernel_type rbf
gamma 0.0
nr_class 2
total_sv 8
rho 0.0
label 1 -1
nr_sv 4 4
SV
1.0 0:0.7509665489196777 1:0.9469867944717407 2:0.7472115755081177 3:0.8634045124053955 4:0.9761942625045776 5:1.3232468366622925 6:1.389417052268982 7:1.4066768884658813 8:1.5882548093795776 9:1.115191102027893 10:1.1881203651428223 11:0.6787594556808472 12:0.9054777026176453 13:0.6861644983291626 14:0.6276892423629761 15:0.35312649607658386 16:0.4280605614185333 17:0.3995301425457001 18:0.2033749520778656 19:0.13420674204826355 20:0.5697277188301086 21:0.4443570375442505 22:0.6548616886138916 23:0.5183270573616028 24:0.21372555196285248 25:0.29841700196266174 26:0.35203152894973755 27:0.6201342940330505 28:0.908430814743042 29:1.1012686491012573 30:1.3262790441513062 31:1.1210434436798096 32:1.3454341888427734 33:0.9253237247467041 34:0.9794597029685974 35:0.5726295113563538 36:0.5381927490234375 37:0.5513553023338318 38:0.3162776827812195 39:0.2690678834915161 40:0.6424508690834045 41:0.6624801754951477 42:0.9354863166809082 43:0.6738290786743164 44:0.9136439561843872 45:0.817819356918335 46:0.6362913250923157 47:0.39991918206214905 48:0.3707177937030792 49:0.4894256591796875 50:0.7918802499771118 51:0.6519048810005188 52:1.121469259262085 53:0.9600841403007507 54:0.7312267422676086 55:0.5940973162651062 56:0.2170027643442154 57:0.012728615663945675 58:0.5392448306083679 59:0.5717817544937134 60:0.914180338382721 61:0.9754509925842285 62:0.9411643147468567 63:0.6852201223373413 64:0.5774700045585632 65:0.2474333494901657 66:0.5322761535644531 67:0.5537954568862915 68:0.1743449568748474 69:0.29891785979270935 70:0.12687747180461884 71:0.14140497148036957 72:0.2666902542114258 73:0.28235527873039246 74:0.21178114414215088 75:0.12121128290891647 76:0.235587015748024 77:0.21752211451530457 78:0.4378322958946228 79:0.3585008978843689 80:0.35699936747550964 81:0.29456350207328796 82:0.038262397050857544 83:0.24608875811100006 84:0.27036336064338684 85:0.2764951288700104 86:0.3529885411262512 87:0.31354567408561707 88:0.5005146265029907 89:0.424981027841568 90:0.46515631675720215 91:0.2466019093990326 92:0.31540966033935547 93:0.16269752383232117 94:0.1808505803346634 95:0.05303474888205528 96:0.20373374223709106 97:0.02900315262377262 98:0.12952713668346405 99:0.12833651900291443 100:0.1996287852525711 101:0.3872261047363281 102:0.4756952226161957 103:0.49209314584732056 104:0.6644700169563293 105:0.47955769300460815 106:0.5880077481269836 107:0.43775269389152527 108:0.3081422448158264 109:0.10883557051420212 110:0.12775398790836334 111:0.05285815894603729 112:0.13474786281585693 113:0.11929869651794434 114:0.2640964984893799 115:0.18696025013923645 116:0.2748481333255768 117:0.4011186957359314 118:0.26059070229530334 119:0.3837897479534149 120:0.3053867220878601 121:0.3059724271297455 122:0.26243165135383606 123:0.12349396198987961 124:0.06618084758520126 125:0.25517550110816956 126:0.19828256964683533 127:0.29225122928619385 128:0.26299384236335754 129:0.35004937648773193 130:0.33172982931137085 131:0.3486548364162445 132:0.3405197262763977 133:0.1985464245080948 134:0.35209256410598755 135:0.20724175870418549 136:0.1783139407634735 137:0.10925057530403137 138:0.11993075162172318 139:0.20541943609714508 140:0.048045217990875244 141:0.05986477807164192 142:0.11758571118116379 143:0.20463475584983826 144:0.13991938531398773 145:0.38901400566101074 146:0.23499827086925507 147:0.22101444005966187 148:0.2834385335445404 149:0.2824927568435669 150:0.237582728266716 151:0.15072911977767944 152:0.25147807598114014 153:0.14569412171840668 154:0.1763302981853485 155:0.1863209456205368 156:0.2109125554561615 157:0.2561546266078949 158:0.13756710290908813 159:0.1902046650648117 160:0.169212207198143 161:0.14574503898620605 162:0.08179143816232681 163:0.20010735094547272 164:0.08829796314239502 165:0.24001772701740265 166:0.2048436999320984 167:0.3295993506908417 168:0.2377585768699646 169:0.2571493983268738 170:0.23593953251838684 171:0.12206096947193146 172:0.23155976831912994 173:0.14999552071094513 174:0.08432406187057495 175:0.21194395422935486 176:0.17903675138950348 177:0.26248809695243835 178:0.2330956608057022 179:0.21416863799095154 180:0.16717851161956787 181:0.1014489009976387 182:0.1653239130973816 183:0.19750002026557922 184:0.22171257436275482 185:0.33970144391059875 186:0.2905098795890808 187:0.4071730673313141 188:0.34317341446876526 189:0.37675851583480835 190:0.3764650523662567 191:0.3106772303581238 192:0.2868155241012573 193:0.18897263705730438 194:0.06924309581518173 195:0.17944225668907166 196:0.2247222661972046 197:0.3491506278514862 198:0.3665861487388611 199:0.45312783122062683 200:0.5053422451019287 201:0.22428259253501892 202:0.282896488904953 203:0.16132499277591705 204:0.15309764444828033 205:0.030302396044135094 206:0.17124594748020172 207:0.03754906728863716 208:0.16278313100337982 209:0.15771056711673737 210:0.3304513692855835 211:0.424937903881073 212:0.5051888227462769 213:0.4613085091114044 214:0.5733519196510315 215:0.5143910050392151 216:0.3456653356552124 217:0.2073841691017151 218:0.0613594576716423 219:0.007326110731810331 220:0.2546103596687317 221:0.2929222583770752 222:0.521559476852417 223:0.5940467119216919 224:0.5203085541725159 225:0.5921908020973206 226:0.536442756652832 227:0.40583136677742004 228:0.320361852645874 229:0.3678295612335205 230:0.2945716083049774 231:0.4239080250263214 232:0.47541865706443787 233:0.5927265286445618 234:0.6941649317741394 235:0.6897209286689758 236:0.5440935492515564 237:0.5479421019554138 238:0.29049018025398254 239:0.24262180924415588 240:0.36828792095184326 241:0.35019999742507935 242:0.777003288269043 243:0.9346397519111633 244:0.9763889908790588 245:0.9321523904800415 246:0.904617190361023 247:1.0448673963546753 248:0.9168113470077515 249:0.8543555736541748 
1.0 0:1.5193560123443604 1:1.1557180881500244 2:1.2971917390823364 3:1.218705415725708 4:1.4423667192459106 5:1.425907850265503 6:0.6345294117927551 7:0.6651067137718201 8:0.8322784304618835 9:0.9768437743186951 10:1.3273224830627441 11:1.24276864528656 12:1.3881562948226929 13:1.279592752456665 14:1.4162201881408691 15:0.9444193840026855 16:0.8823161721229553 17:0.8424572348594666 18:0.9456843733787537 19:0.7344300150871277 20:0.5551879405975342 21:0.26204171776771545 22:0.5575509667396545 23:0.7095235586166382 24:0.8769250512123108 25:1.061529517173767 26:1.3110878467559814 27:0.8661446571350098 28:1.1649671792984009 29:0.6954925060272217 30:0.2373996526002884 31:0.3419395983219147 32:0.24863196909427643 33:0.39594414830207825 34:0.5001787543296814 35:0.8194013237953186 36:0.8150889277458191 37:0.9656146764755249 38:0.8445472717285156 39:0.8751561045646667 40:0.7873339653015137 41:0.532669723033905 42:0.5859649181365967 43:0.5981136560440063 44:0.5912212133407593 45:0.3560926914215088 46:0.61995929479599 47:0.3381728231906891 48:0.8365786671638489 49:0.7061455845832825 50:0.8955162167549133 51:0.5850051641464233 52:0.37446218729019165 53:0.49124017357826233 54:0.20678244531154633 55:0.2869170308113098 56:0.25390082597732544 57:0.13769710063934326 58:0.47916167974472046 59:0.5047521591186523 60:0.6653950214385986 61:0.5873432755470276 62:0.803147554397583 63:0.5396218299865723 64:0.5394889712333679 65:0.4620653986930847 66:0.1702253371477127 67:0.14459171891212463 68:0.2691764831542969 69:0.025950511917471886 70:0.07758946716785431 71:0.22381994128227234 72:0.3020530045032501 73:0.3197901248931885 74:0.4568191170692444 75:0.25907066464424133 76:0.3795658051967621 77:0.3044465184211731 78:0.5236849188804626 79:0.5454015135765076 80:0.6437952518463135 81:0.5590400099754333 82:0.5093651413917542 83:0.462817907333374 84:0.4548925459384918 85:0.30960747599601746 86:0.2171393185853958 87:0.14611755311489105 88:0.31111273169517517 89:0.16170646250247955 90:0.30157503485679626 91:0.2765369713306427 92:0.5239346623420715 93:0.4091233015060425 94:0.40474599599838257 95:0.26473793387413025 96:0.3817310631275177 97:0.19215576350688934 98:0.10408896207809448 99:0.22750189900398254 100:0.29211747646331787 101:0.3820173442363739 102:0.37652406096458435 103:0.4380853772163391 104:0.3638467788696289 105:0.21984915435314178 106:0.1007988378405571 107:0.19502002000808716 108:0.19086910784244537 109:0.06402965635061264 110:0.02586112916469574 111:0.18999798595905304 112:0.1780557483434677 113:0.2942298948764801 114:0.3189120590686798 115:0.4347158670425415 116:0.4965131878852844 117:0.40577825903892517 118:0.47312813997268677 119:0.30805665254592896 120:0.4170821011066437 121:0.2152693122625351 122:0.22778242826461792 123:0.0970478281378746 124:0.1159198135137558 125:0.25151169300079346 126:0.17863142490386963 127:0.37360650300979614 128:0.3526577949523926 129:0.4712216258049011 130:0.3577321171760559 131:0.3943530023097992 132:0.3261575400829315 133:0.19683004915714264 134:0.13929380476474762 135:0.1562759280204773 136:0.11553294956684113 137:0.2909786105155945 138:0.30597713589668274 139:0.3807876706123352 140:0.4251331686973572 141:0.6617456078529358 142:0.5144628882408142 143:0.5083017945289612 144:0.2947578728199005 145:0.3860856890678406 146:0.23328430950641632 147:0.3000374436378479 148:0.11536658555269241 149:0.06848344951868057 150:0.2250933051109314 151:0.33942359685897827 152:0.4944601058959961 153:0.37379685044288635 154:0.44796350598335266 155:0.32226279377937317 156:0.2920616865158081 157:0.11295271664857864 158:0.06690295040607452 159:0.18300780653953552 160:0.26701292395591736 161:0.3806794583797455 162:0.47234055399894714 163:0.5999633073806763 164:0.6152148246765137 165:0.5332967042922974 166:0.5050538182258606 167:0.4038142263889313 168:0.5068951845169067 169:0.4025656580924988 170:0.29553771018981934 171:0.13552631437778473 172:0.19707557559013367 173:0.15198931097984314 174:0.11203168332576752 175:0.10799865424633026 176:0.11087813228368759 177:0.29567989706993103 178:0.14718863368034363 179:0.2946263551712036 180:0.32516157627105713 181:0.3009779155254364 182:0.33478817343711853 183:0.3008471727371216 184:0.2947210371494293 185:0.1692129522562027 186:0.25407281517982483 187:0.19873252511024475 188:0.25198251008987427 189:0.29292720556259155 190:0.3510744273662567 191:0.36703190207481384 192:0.26151639223098755 193:0.3149629831314087 194:0.1986563503742218 195:0.2378353774547577 196:0.16007570922374725 197:0.2181967794895172 198:0.2408267855644226 199:0.20299485325813293 200:0.2404235452413559 201:0.07456620037555695 202:0.17288534343242645 203:0.06868837773799896 204:0.15786734223365784 205:0.030310750007629395 206:0.14336848258972168 207:0.0750475600361824 208:0.020058223977684975 209:0.17383378744125366 210:0.24222886562347412 211:0.3488910496234894 212:0.4015159010887146 213:0.44397592544555664 214:0.40000349283218384 215:0.37458643317222595 216:0.4620131552219391 217:0.46305525302886963 218:0.3850288689136505 219:0.25616055727005005 220:0.18704433739185333 221:0.10171225666999817 222:0.03842627629637718 223:0.10477268695831299 224:0.16364984214305878 225:0.2810426950454712 226:0.23992416262626648 227:0.29250842332839966 228:0.15592636168003082 229:0.2301139384508133 230:0.16914600133895874 231:0.20796655118465424 232:0.3042483329772949 233:0.29073548316955566 234:0.4314706325531006 235:0.4264649748802185 236:0.48392927646636963 237:0.4585362672805786 238:0.5101612210273743 239:0.29521703720092773 240:0.3058486878871918 241:0.0964575931429863 242:0.3962085247039795 243:0.5181702971458435 244:0.49871739745140076 245:0.5875599980354309 246:0.6074159741401672 247:0.8843139410018921 248:0.8841646313667297 249:0.8512681126594543 
1.0 0:1.2721583843231201 1:1.2027802467346191 2:1.1886882781982422 3:1.0758782625198364 4:1.167510986328125 5:0.8583298921585083 6:1.0410840511322021 7:0.9398918151855469 8:0.8357152342796326 9:1.1014068126678467 10:1.1618040800094604 11:1.325614094734192 12:1.174574613571167 13:1.3559008836746216 14:1.3187087774276733 15:1.289844274520874 16:0.9548583030700684 17:1.203744888305664 18:1.181220293045044 19:1.1288280487060547 20:0.8335912823677063 21:1.4312140941619873 22:1.81573486328125 23:1.845658302307129 24:1.553635597229004 25:1.33528733253479 26:1.4758580923080444 27:1.058990478515625 28:1.3368369340896606 29:1.4003161191940308 30:0.7096975445747375 31:0.3982361853122711 32:0.2449457347393036 33:0.4448311924934387 34:0.2534787952899933 35:0.4480070471763611 36:0.5844100117683411 37:0.8536598682403564 38:0.909445583820343 39:1.2724790573120117 40:1.0946292877197266 41:1.2259067296981812 42:1.042093276977539 43:0.5449835658073425 44:0.13463932275772095 45:0.028574824333190918 46:0.6525731682777405 47:0.9011097550392151 48:1.1119519472122192 49:1.3052029609680176 50:1.1966933012008667 51:1.3070075511932373 52:0.959680438041687 53:0.9514628052711487 54:0.6297548413276672 55:0.516046941280365 56:0.12009822577238083 57:0.24548205733299255 58:0.16948257386684418 59:0.4817488193511963 60:0.36901840567588806 61:0.39950600266456604 62:0.42541417479515076 63:0.5923856496810913 64:0.641536295413971 65:0.5765008926391602 66:0.8981677293777466 67:0.6035665273666382 68:0.3354095220565796 69:0.2661987841129303 70:0.04226096346974373 71:0.16778583824634552 72:0.2884659469127655 73:0.19186776876449585 74:0.4339987337589264 75:0.30274128913879395 76:0.0783386304974556 77:0.132866770029068 78:0.2172657698392868 79:0.23554815351963043 80:0.38424134254455566 81:0.7148900032043457 82:0.6941086649894714 83:0.6019049882888794 84:0.7029740810394287 85:0.5938391089439392 86:0.5389072299003601 87:0.34050267934799194 88:0.3058774471282959 89:0.10822133719921112 90:0.09184692800045013 91:0.3612349331378937 92:0.48208093643188477 93:0.6089101433753967 94:0.6615387201309204 95:0.5823741555213928 96:0.5744527578353882 97:0.4042188823223114 98:0.4064688980579376 99:0.2526437044143677 100:0.1520780622959137 101:0.25187087059020996 102:0.18701234459877014 103:0.18338719010353088 104:0.20008301734924316 105:0.0614260695874691 106:0.15566739439964294 107:0.23269245028495789 108:0.24660137295722961 109:0.3081701099872589 110:0.24828442931175232 111:0.35266637802124023 112:0.34138497710227966 113:0.26619425415992737 114:0.28632715344429016 115:0.11830749362707138 116:0.1513351947069168 117:0.23372119665145874 118:0.22032155096530914 119:0.32991302013397217 120:0.366970032453537 121:0.3331678807735443 122:0.42598626017570496 123:0.3673706352710724 124:0.39842575788497925 125:0.31502649188041687 126:0.3033180832862854 127:0.3207263946533203 128:0.18329697847366333 129:0.19133277237415314 130:0.1342574954032898 131:0.13352912664413452 132:0.2245519906282425 133:0.15327073633670807 134:0.3103519380092621 135:0.34191426634788513 136:0.24030834436416626 137:0.2832476496696472 138:0.1983448714017868 139:0.2624976634979248 140:0.30408838391304016 141:0.29334449768066406 142:0.44460219144821167 143:0.4355643391609192 144:0.5102456212043762 145:0.486247181892395 146:0.46785295009613037 147:0.4522579312324524 148:0.26599955558776855 149:0.18577106297016144 150:0.15465907752513885 151:0.2442280501127243 152:0.39755937457084656 153:0.46147453784942627 154:0.6351318955421448 155:0.6427147388458252 156:0.5919766426086426 157:0.5852302312850952 158:0.4890124499797821 159:0.46636778116226196 160:0.3221230208873749 161:0.28811508417129517 162:0.3701264560222626 163:0.3952137231826782 164:0.49366870522499084 165:0.49477148056030273 166:0.5535286068916321 167:0.5340569615364075 168:0.36125290393829346 169:0.3292352855205536 170:0.2891235649585724 171:0.3470292389392853 172:0.452252060174942 173:0.4868880808353424 174:0.6144822835922241 175:0.6083558201789856 176:0.6274932622909546 177:0.6190638542175293 178:0.49053195118904114 179:0.4070727229118347 180:0.34043848514556885 181:0.297703355550766 182:0.19743652641773224 183:0.21864622831344604 184:0.4162587821483612 185:0.4341951608657837 186:0.5487598180770874 187:0.548021137714386 188:0.5195291042327881 189:0.5757323503494263 190:0.3710577189922333 191:0.30655065178871155 192:0.24712806940078735 193:0.2013600617647171 194:0.32889387011528015 195:0.465616375207901 196:0.5829092264175415 197:0.5913757681846619 198:0.5898746252059937 199:0.641294538974762 200:0.5505948066711426 201:0.47567909955978394 202:0.3011278808116913 203:0.24846048653125763 204:0.35403361916542053 205:0.45304349064826965 206:0.5723943710327148 207:0.5806800723075867 208:0.6318905353546143 209:0.648492693901062 210:0.5647663474082947 211:0.550553560256958 212:0.3626384437084198 213:0.27525123953819275 214:0.2790745198726654 215:0.32035166025161743 216:0.44814416766166687 217:0.4819704294204712 218:0.556508481502533 219:0.6111400127410889 220:0.6351957321166992 221:0.6893051266670227 222:0.6330708861351013 223:0.7329500317573547 224:0.7399489283561707 225:0.67496258020401 226:0.6220095157623291 227:0.3905375897884369 228:0.33215469121932983 229:0.30810827016830444 230:0.3364509344100952 231:0.4667586088180542 232:0.5883663296699524 233:0.7581652402877808 234:0.8415728807449341 235:0.9144806861877441 236:0.8866071105003357 237:0.6749747395515442 238:0.6397705078125 239:0.5058828592300415 240:0.4572141468524933 241:0.6913332939147949 242:0.8710769414901733 243:0.972513735294342 244:0.9547633528709412 245:0.8813142776489258 246:0.7252963185310364 247:0.49944254755973816 248:0.33696940541267395 249:0.19517947733402252 
1.0 0:1.1015545129776 1:0.8346579670906067 2:1.0186370611190796 3:0.8044341206550598 4:1.0558159351348877 5:0.9932918548583984 6:1.0624619722366333 7:0.7643163204193115 8:0.9997009038925171 9:0.7200119495391846 10:0.9503766894340515 11:0.6749172210693359 12:1.1496015787124634 13:1.2663815021514893 14:1.1454271078109741 15:1.264896035194397 16:0.8686872124671936 17:1.1405205726623535 18:0.9404527544975281 19:1.0541313886642456 20:0.44019266963005066 21:0.4517585039138794 22:0.454806923866272 23:0.25774016976356506 24:0.31254252791404724 25:0.4213789105415344 26:0.6303703188896179 27:0.36206942796707153 28:0.3616316616535187 29:0.36540478467941284 30:0.169857457280159 31:0.3103674650192261 32:0.2679537832736969 33:0.509976863861084 34:0.12706111371517181 35:0.14989396929740906 36:0.08724725246429443 37:0.07341334223747253 38:0.5021966099739075 39:0.5728115439414978 40:0.7834674715995789 41:0.6749290227890015 42:0.9235227108001709 43:0.5729968547821045 44:0.3565394878387451 45:0.2677895724773407 46:0.21567676961421967 47:0.3792995810508728 48:0.6452376246452332 49:1.0952138900756836 50:1.1711217164993286 51:1.3168580532073975 52:0.9101765155792236 53:1.1402376890182495 54:0.7915022373199463 55:0.743187427520752 56:0.32035306096076965 57:0.30718788504600525 58:0.6051877737045288 59:0.56984543800354 60:0.9027494788169861 61:0.8390024900436401 62:0.8680123686790466 63:0.582849383354187 64:0.35785749554634094 65:0.45754823088645935 66:0.3612990975379944 67:0.3693365752696991 68:0.49306368827819824 69:0.6629247665405273 70:0.4738515615463257 71:0.511275589466095 72:0.2779976725578308 73:0.365637868642807 74:0.20442138612270355 75:0.18153385818004608 76:0.4691730737686157 77:0.4515966475009918 78:0.572068989276886 79:0.459757924079895 80:0.5073381662368774 81:0.25780460238456726 82:0.19648893177509308 83:0.1061200350522995 84:0.10327538102865219 85:0.22237227857112885 86:0.2213931530714035 87:0.34508031606674194 88:0.20222356915473938 89:0.21238118410110474 90:0.09016970545053482 91:0.1798153668642044 92:0.3212210237979889 93:0.2778981924057007 94:0.4369836151599884 95:0.388308048248291 96:0.49343934655189514 97:0.396648645401001 98:0.3811498284339905 99:0.1437193751335144 100:0.09432188421487808 101:0.1307164579629898 102:0.0966324433684349 103:0.24603049457073212 104:0.1690705269575119 105:0.3025725483894348 106:0.13492105901241302 107:0.2658705413341522 108:0.11246396601200104 109:0.040388934314250946 110:0.17753514647483826 111:0.1696893274784088 112:0.17089444398880005 113:0.1561170071363449 114:0.10246425122022629 115:0.18824945390224457 116:0.17211228609085083 117:0.28499093651771545 118:0.2396448254585266 119:0.28982871770858765 120:0.30215752124786377 121:0.15500101447105408 122:0.08947974443435669 123:0.028058774769306183 124:0.1550954431295395 125:0.2112322747707367 126:0.34043562412261963 127:0.31775590777397156 128:0.34790268540382385 129:0.33918052911758423 130:0.2398965060710907 131:0.2705502212047577 132:0.17642512917518616 133:0.30657386779785156 134:0.308491587638855 135:0.27682334184646606 136:0.21178920567035675 137:0.18807074427604675 138:0.1667814701795578 139:0.09681692719459534 140:0.17856347560882568 141:0.09522703289985657 142:0.23274795711040497 143:0.28784605860710144 144:0.39170873165130615 145:0.39115607738494873 146:0.39052218198776245 147:0.3772762417793274 148:0.19043414294719696 149:0.21977777779102325 150:0.2280684858560562 151:0.3531454801559448 152:0.36680006980895996 153:0.3770448863506317 154:0.42814087867736816 155:0.46007296442985535 156:0.3527284860610962 157:0.38961148262023926 158:0.3350495994091034 159:0.2525918185710907 160:0.3410361111164093 161:0.35914120078086853 162:0.5857210755348206 163:0.5868600606918335 164:0.6426030993461609 165:0.6207531690597534 166:0.5639442205429077 167:0.5228873491287231 168:0.3865576684474945 169:0.4633897542953491 170:0.47256970405578613 171:0.6319859027862549 172:0.6547978520393372 173:0.6576738357543945 174:0.5959029197692871 175:0.5431175231933594 176:0.4818248450756073 177:0.4030255973339081 178:0.49551376700401306 179:0.46123430132865906 180:0.5940845608711243 181:0.5721275210380554 182:0.6055641174316406 183:0.5321623086929321 184:0.4302184283733368 185:0.4620607793331146 186:0.4235849678516388 187:0.5407106280326843 188:0.5910192728042603 189:0.7091817259788513 190:0.6750597357749939 191:0.7342542409896851 192:0.6548219323158264 193:0.5938242077827454 194:0.4810713231563568 195:0.3268275558948517 196:0.32567286491394043 197:0.2891547977924347 198:0.3919237554073334 199:0.3881800174713135 200:0.45702165365219116 201:0.44603562355041504 202:0.4740935266017914 203:0.4416390359401703 204:0.3720313310623169 205:0.38442307710647583 206:0.3678869605064392 207:0.48534560203552246 208:0.5320405960083008 209:0.6717495322227478 210:0.5968278646469116 211:0.6585256457328796 212:0.6026667952537537 213:0.5204029679298401 214:0.5456010103225708 215:0.5476000308990479 216:0.5954313278198242 217:0.5559954047203064 218:0.5994260907173157 219:0.576847493648529 220:0.5832199454307556 221:0.5135752558708191 222:0.5528883934020996 223:0.6952850222587585 224:0.7865532636642456 225:0.8775536417961121 226:0.8941969871520996 227:0.9920207262039185 228:1.0528206825256348 229:0.9391837120056152 230:0.7137749791145325 231:0.6130827069282532 232:0.264299601316452 233:0.1461183875799179 234:0.4932290017604828 235:0.6906976103782654 236:1.0240823030471802 237:1.0901237726211548 238:1.2123703956604004 239:1.0413134098052979 240:0.9758750796318054 241:0.5977948307991028 242:0.30042827129364014 243:0.12036362290382385 244:0.26066818833351135 245:0.5697540044784546 246:0.7817299962043762 247:1.0494056940078735 248:0.9377922415733337 249:0.9797483086585999 
-1.0 0:1.6199184656143188 1:0.9955503940582275 2:0.7000594735145569 3:1.3683018684387207 4:1.6623985767364502 5:1.6320538520812988 6:1.0902012586593628 7:1.0831198692321777 8:0.8773226737976074 9:0.16549359261989594 10:0.30589666962623596 11:1.3899589776992798 12:1.5738990306854248 13:0.5921372175216675 14:1.031166672706604 15:1.2005088329315186 16:0.5164328813552856 17:1.076075553894043 18:1.4073597192764282 19:0.47055333852767944 20:0.4859050512313843 21:1.6164757013320923 22:1.289014220237732 23:2.002683401107788 24:0.5181261301040649 25:2.001007556915283 26:0.5869532227516174 27:0.9150018692016602 28:1.1388795375823975 29:0.7593092918395996 30:0.5208846926689148 31:0.908094584941864 32:0.24716445803642273 33:0.7289021611213684 34:0.42505475878715515 35:0.43328335881233215 36:0.71822589635849 37:0.2636157274246216 38:0.29971879720687866 39:0.5872945785522461 40:1.1671558618545532 41:0.491023451089859 42:0.05637899413704872 43:0.29106563329696655 44:0.22144077718257904 45:0.3632197678089142 46:0.3941417336463928 47:0.7101520895957947 48:0.7869086265563965 49:0.6470030546188354 50:0.6805636286735535 51:0.448501855134964 52:0.7155604958534241 53:0.528619647026062 54:0.284560889005661 55:0.6263063549995422 56:0.17469513416290283 57:0.22584928572177887 58:0.738802433013916 59:0.1084819957613945 60:0.3651328384876251 61:0.5579906702041626 62:0.12708985805511475 63:0.10207509249448776 64:0.6417573690414429 65:0.40371617674827576 66:0.9316023588180542 67:0.464726984500885 68:0.45257070660591125 69:0.5092548131942749 70:0.39603760838508606 71:0.3775266408920288 72:0.26864007115364075 73:0.30538904666900635 74:0.11553643643856049 75:0.342783659696579 76:0.5320647954940796 77:0.17988190054893494 78:0.5205323696136475 79:0.5313860177993774 80:0.25516030192375183 81:0.20173141360282898 82:0.21595509350299835 83:0.3123343884944916 84:0.7866072058677673 85:0.33934590220451355 86:0.28655093908309937 87:0.052045151591300964 88:0.3502472937107086 89:0.10956910252571106 90:0.19538338482379913 91:0.4375021159648895 92:0.13832151889801025 93:0.18576094508171082 94:0.25546279549598694 95:0.13803577423095703 96:0.4023774564266205 97:0.2738223969936371 98:0.22851862013339996 99:0.18652237951755524 100:0.16119763255119324 101:0.1265629380941391 102:0.13568736612796783 103:0.1135384663939476 104:0.3203728497028351 105:0.38031086325645447 106:0.1719171404838562 107:0.14469055831432343 108:0.2573058605194092 109:0.1843341737985611 110:0.009085774421691895 111:0.2984420359134674 112:0.17487666010856628 113:0.08873306959867477 114:0.2805939316749573 115:0.2764747738838196 116:0.14920717477798462 117:0.16741943359375 118:0.3578141927719116 119:0.33525943756103516 120:0.1648128181695938 121:0.19616751372814178 122:0.19608920812606812 123:0.20382489264011383 124:0.07641863822937012 125:0.15782053768634796 126:0.06649068742990494 127:0.15823909640312195 128:0.037491682916879654 129:0.18308638036251068 130:0.08032134920358658 131:0.10407517105340958 132:0.21776027977466583 133:0.19005602598190308 134:0.12240912020206451 135:0.31859758496284485 136:0.18130558729171753 137:0.19311437010765076 138:0.037545546889305115 139:0.22380946576595306 140:0.06840799748897552 141:0.14042119681835175 142:0.09276113659143448 143:0.04504570737481117 144:0.15660841763019562 145:0.10444171726703644 146:0.09137961268424988 147:0.25182271003723145 148:0.09699171036481857 149:0.08089559525251389 150:0.15750016272068024 151:0.12688413262367249 152:0.04650909826159477 153:0.24761274456977844 154:0.1503557711839676 155:0.19382213056087494 156:0.14416256546974182 157:0.058642566204071045 158:0.1016140803694725 159:0.12732353806495667 160:0.07064221799373627 161:0.04473406821489334 162:0.17434467375278473 163:0.09873910248279572 164:0.016940752044320107 165:0.2647131383419037 166:0.08045492321252823 167:0.11280286312103271 168:0.15399311482906342 169:0.05876171216368675 170:0.10890813171863556 171:0.09226471930742264 172:0.14256800711154938 173:0.10816558450460434 174:0.13370834290981293 175:0.09435976296663284 176:0.07281080633401871 177:0.1649085283279419 178:0.08393741399049759 179:0.1087736189365387 180:0.1519133597612381 181:0.01987391524016857 182:0.05935031175613403 183:0.2034730464220047 184:0.03952711820602417 185:0.08065054565668106 186:0.1531868278980255 187:0.08916797488927841 188:0.11413402110338211 189:0.15238451957702637 190:0.053404271602630615 191:0.10121500492095947 192:0.15193824470043182 193:0.035181935876607895 194:0.11515183001756668 195:0.13495461642742157 196:0.014810575172305107 197:0.07362758368253708 198:0.1350233405828476 199:0.04523945972323418 200:0.08505912870168686 201:0.13453315198421478 202:0.08209264278411865 203:0.1157323494553566 204:0.12927761673927307 205:0.01337597519159317 206:0.12129094451665878 207:0.06549350172281265 208:0.04105693846940994 209:0.07332000136375427 210:0.13506460189819336 211:0.02417358197271824 212:0.09706044942140579 213:0.09966219961643219 214:0.03833959996700287 215:0.11683560907840729 216:0.0965437963604927 217:0.028981942683458328 218:0.06699065864086151 219:0.12484441697597504 220:0.02677079662680626 221:0.1152520477771759 222:0.09426862746477127 223:0.039541929960250854 224:0.09651253372430801 225:0.09987027198076248 226:0.003991233184933662 227:0.09056610614061356 228:0.06726160645484924 229:0.036854080855846405 230:0.08350243419408798 231:0.10317177325487137 232:0.032569386065006256 233:0.10528480261564255 234:0.07866378873586655 235:0.015928050503134727 236:0.07071352750062943 237:0.10847494751214981 238:0.027804844081401825 239:0.11011701077222824 240:0.09848817437887192 241:0.0382656455039978 242:0.1097528338432312 243:0.11099101603031158 244:0.011592117138206959 245:0.10239468514919281 246:0.09216517955064774 247:0.030102001503109932 248:0.087845079600811 249:0.09179076552391052 
-1.0 0:1.8136564493179321 1:1.0288994312286377 2:1.0405566692352295 3:1.3827450275421143 4:2.0646142959594727 5:2.7294747829437256 6:2.1468665599823 7:2.412644386291504 8:2.4313108921051025 9:1.5145859718322754 10:0.29053282737731934 11:1.548306941986084 12:1.5379047393798828 13:0.4880814850330353 14:0.8487213253974915 15:0.6943833827972412 16:0.0482669472694397 17:0.5601522922515869 18:0.43427225947380066 19:0.13836149871349335 20:0.6674706935882568 21:1.2682592868804932 22:1.2461856603622437 23:1.3411415815353394 24:0.7159609198570251 25:1.5488824844360352 26:1.0968174934387207 27:2.820868968963623 28:1.9969921112060547 29:0.9727779030799866 30:1.3347736597061157 31:1.244691252708435 32:0.33536040782928467 33:0.27773961424827576 34:0.470215767621994 35:0.2430209368467331 36:0.511942982673645 37:0.15152521431446075 38:0.11479386687278748 39:0.3860977292060852 40:0.631654679775238 41:0.9430647492408752 42:0.8602093458175659 43:1.4107444286346436 44:1.249607801437378 45:1.2685648202896118 46:0.6330252289772034 47:1.2109947204589844 48:1.0357611179351807 49:0.7891616821289062 50:0.8400883674621582 51:0.6275542974472046 52:0.47047290205955505 53:0.22064922749996185 54:0.17973089218139648 55:0.2670922577381134 56:0.11356376856565475 57:0.2286769449710846 58:0.35105618834495544 59:0.19342079758644104 60:0.41383111476898193 61:0.4602352976799011 62:0.6030816435813904 63:0.3683187961578369 64:0.6149008274078369 65:0.5033459663391113 66:0.7923708558082581 67:0.6696643829345703 68:0.3159572184085846 69:0.6080307364463806 70:0.2750706374645233 71:0.36765041947364807 72:0.07051416486501694 73:0.19732770323753357 74:0.19311033189296722 75:0.18668611347675323 76:0.4123755693435669 77:0.1374598741531372 78:0.3694952726364136 79:0.24291686713695526 80:0.26306095719337463 81:0.13953767716884613 82:0.23762471973896027 83:0.1705264449119568 84:0.43004950881004333 85:0.17674969136714935 86:0.2809109091758728 87:0.0973232090473175 88:0.33121156692504883 89:0.11634423583745956 90:0.18873348832130432 91:0.3057890236377716 92:0.1953035145998001 93:0.10233638435602188 94:0.0349133163690567 95:0.0884196013212204 96:0.15048575401306152 97:0.09486918151378632 98:0.08624085783958435 99:0.10537324100732803 100:0.09409166872501373 101:0.09806342422962189 102:0.08487960696220398 103:0.12076139450073242 104:0.1885279417037964 105:0.060923218727111816 106:0.06250203400850296 107:0.19946840405464172 108:0.12372827529907227 109:0.25310489535331726 110:0.060274142771959305 111:0.08820091187953949 112:0.022736215963959694 113:0.10489244014024734 114:0.06433718651533127 115:0.11216875910758972 116:0.02342814765870571 117:0.11881522834300995 118:0.1785239279270172 119:0.16629257798194885 120:0.08500926196575165 121:0.1034589484333992 122:0.04384521767497063 123:0.10905643552541733 124:0.053765520453453064 125:0.07382827997207642 126:0.08663986623287201 127:0.08995182812213898 128:0.06928575038909912 129:0.03169415518641472 130:0.10477506369352341 131:0.07188838720321655 132:0.031062114983797073 133:0.12997318804264069 134:0.01867959089577198 135:0.08792076259851456 136:0.051428403705358505 137:0.014716989360749722 138:0.06438718736171722 139:0.09280895441770554 140:0.09072728455066681 141:0.051131535321474075 142:0.060333289206027985 143:0.09094051271677017 144:0.07009212672710419 145:0.03204568848013878 146:0.1147993952035904 147:0.014595290645956993 148:0.07162650674581528 149:0.06961258500814438 150:0.03304099291563034 151:0.08629278838634491 152:0.02996901422739029 153:0.05871441587805748 154:0.07307828217744827 155:0.019835174083709717 156:0.07011955976486206 157:0.04432104155421257 158:0.01788289099931717 159:0.09796939790248871 160:0.018563050776720047 161:0.05900859087705612 162:0.06485392153263092 163:0.026648465543985367 164:0.08240503072738647 165:0.0695694088935852 166:0.0827828124165535 167:0.07883152365684509 168:0.026822399348020554 169:0.06814691424369812 170:0.03450426459312439 171:0.034441858530044556 172:0.07057781517505646 173:0.06599324196577072 174:0.0459725596010685 175:0.0735638216137886 176:0.01581130549311638 177:0.0887826606631279 178:0.037898316979408264 179:0.049429573118686676 180:0.07765449583530426 181:0.010539575479924679 182:0.076211117208004 183:0.05892281234264374 184:0.04763438552618027 185:0.08069227635860443 186:0.027525532990694046 187:0.0905282199382782 188:0.04164537787437439 189:0.03606018051505089 190:0.05560094863176346 191:0.04659537225961685 192:0.06658443063497543 193:0.05087519437074661 194:0.01670883782207966 195:0.08623941242694855 196:0.027781756594777107 197:0.03455715626478195 198:0.06876128166913986 199:0.03456328436732292 200:0.04560361057519913 201:0.04469101130962372 202:0.01672535389661789 203:0.06824038177728653 204:0.06036411225795746 205:0.0679287314414978 206:0.09238971769809723 207:0.05278443172574043 208:0.044500693678855896 209:0.04653472453355789 210:0.05216171219944954 211:0.04113190621137619 212:0.04213220626115799 213:0.06690255552530289 214:0.06448125839233398 215:0.041927311569452286 216:0.06161151081323624 217:0.023136546835303307 218:0.04735156148672104 219:0.06998702138662338 220:0.025296669453382492 221:0.04453485831618309 222:0.03932508826255798 223:0.03235869109630585 224:0.06676164269447327 225:0.042583003640174866 226:0.05488835275173187 227:0.08653443306684494 228:0.046746641397476196 229:0.059609442949295044 230:0.03080507554113865 231:0.046400152146816254 232:0.05128505080938339 233:0.02518908679485321 234:0.06066492199897766 235:0.05054982006549835 236:0.0288846418261528 237:0.07070436328649521 238:0.02253807708621025 239:0.05204841494560242 240:0.06590090692043304 241:0.013757606968283653 242:0.08753171563148499 243:0.030589379370212555 244:0.07110601663589478 245:0.055882249027490616 246:0.040712691843509674 247:0.0480516143143177 248:0.0482095405459404 249:0.02507581003010273 
-1.0 0:0.40818461775779724 1:0.5266710519790649 2:1.1091442108154297 3:0.8004491925239563 4:1.0383232831954956 5:1.7223058938980103 6:1.1079812049865723 7:1.9200974702835083 8:1.9905964136123657 9:2.2643771171569824 10:0.8996433019638062 11:2.219102621078491 12:2.208861827850342 13:0.5695352554321289 14:1.5954582691192627 15:0.9345105886459351 16:0.6303264498710632 17:0.48404768109321594 18:0.3199921250343323 19:0.3418351709842682 20:0.41022366285324097 21:0.1292944997549057 22:0.25140297412872314 23:0.8416100740432739 24:0.6425637006759644 25:0.5031852126121521 26:1.3697365522384644 27:1.8893417119979858 28:1.2938348054885864 29:0.7075360417366028 30:0.9218617677688599 31:0.8058902025222778 32:0.17101936042308807 33:0.21232332289218903 34:0.3107815980911255 35:0.3915557563304901 36:0.4200844168663025 37:0.3672768771648407 38:0.36157864332199097 39:0.4548778831958771 40:0.2744928300380707 41:1.1132678985595703 42:0.9437690377235413 43:1.426866888999939 44:1.0731875896453857 45:0.9003697633743286 46:0.21542124450206757 47:0.6976746320724487 48:0.6835796236991882 49:0.6175253391265869 50:0.6399920582771301 51:0.2705881893634796 52:0.18301361799240112 53:0.05580836534500122 54:0.11895110458135605 55:0.18719907104969025 56:0.25607913732528687 57:0.4979952573776245 58:0.5007098317146301 59:0.181545227766037 60:0.33923444151878357 61:0.5387088656425476 62:0.6672086119651794 63:0.626858115196228 64:0.679499626159668 65:0.3029327094554901 66:0.6478667855262756 67:0.412862092256546 68:0.13701936602592468 69:0.29664504528045654 70:0.20872275531291962 71:0.13589191436767578 72:0.04525300860404968 73:0.11169718950986862 74:0.3514879643917084 75:0.11283378303050995 76:0.45177197456359863 77:0.2971799969673157 78:0.5714240074157715 79:0.3260548710823059 80:0.2942921817302704 81:0.16646353900432587 82:0.2714935839176178 83:0.0793643370270729 84:0.37797433137893677 85:0.2532626688480377 86:0.16224625706672668 87:0.12744787335395813 88:0.10153699666261673 89:0.058778516948223114 90:0.14908276498317719 91:0.30153024196624756 92:0.15983548760414124 93:0.09753798693418503 94:0.1734849065542221 95:0.21621152758598328 96:0.3428914546966553 97:0.2761293351650238 98:0.2972072958946228 99:0.14769592881202698 100:0.16556787490844727 101:0.14592275023460388 102:0.07896841317415237 103:0.2123117595911026 104:0.2110922932624817 105:0.14619751274585724 106:0.16913454234600067 107:0.1530264914035797 108:0.17941531538963318 109:0.2528854310512543 110:0.04968072474002838 111:0.22686737775802612 112:0.12055310606956482 113:0.0449354313313961 114:0.11397556215524673 115:0.06112302467226982 116:0.07408116012811661 117:0.09045987576246262 118:0.2393021434545517 119:0.18114373087882996 120:0.052393604069948196 121:0.10558809340000153 122:0.11233805119991302 123:0.06390098482370377 124:0.12437079846858978 125:0.08752350509166718 126:0.08334744721651077 127:0.09619712084531784 128:0.06095974147319794 129:0.0703137069940567 130:0.13142548501491547 131:0.16526640951633453 132:0.12502698600292206 133:0.09062933921813965 134:0.08146992325782776 135:0.1447884440422058 136:0.19952571392059326 137:0.11536367237567902 138:0.09575282782316208 139:0.16075730323791504 140:0.018880704417824745 141:0.034821055829524994 142:0.08295261114835739 143:0.019385794177651405 144:0.058706656098365784 145:0.09569144248962402 146:0.0785561129450798 147:0.05255356803536415 148:0.0827542096376419 149:0.0708787813782692 150:0.015263155102729797 151:0.08372052013874054 152:0.047913797199726105 153:0.10269148647785187 154:0.036218274384737015 155:0.10064387321472168 156:0.03333934023976326 157:0.03989117965102196 158:0.05081362649798393 159:0.0902366116642952 160:0.04662955552339554 161:0.048035845160484314 162:0.10054953396320343 163:0.0018219368066638708 164:0.049133121967315674 165:0.1193770095705986 166:0.051281921565532684 167:0.07763763517141342 168:0.06457621604204178 169:0.08476723730564117 170:0.0786057785153389 171:0.027880150824785233 172:0.05912662297487259 173:0.10116435587406158 174:0.014916596934199333 175:0.04630352929234505 176:0.07579170912504196 177:0.027035905048251152 178:0.042252711951732635 179:0.03423967957496643 180:0.022840235382318497 181:0.04047588258981705 182:0.03930705040693283 183:0.03394534811377525 184:0.0550047867000103 185:0.09761480987071991 186:0.05142289027571678 187:0.07356952130794525 188:0.012350133620202541 189:0.0464094877243042 190:0.04758405312895775 191:0.0341135635972023 192:0.05634241923689842 193:0.029203001409769058 194:0.02589104138314724 195:0.02119842730462551 196:0.03209567070007324 197:0.031556785106658936 198:0.03808813542127609 199:0.021865490823984146 200:0.0277535580098629 201:0.021743787452578545 202:0.06875781714916229 203:0.027374140918254852 204:0.03799890726804733 205:0.036537133157253265 206:0.06112276762723923 207:0.017193807289004326 208:0.016189061105251312 209:0.03198998048901558 210:0.050577469170093536 211:0.03018804080784321 212:0.07405591011047363 213:0.021471837535500526 214:0.00619266415014863 215:0.05928947404026985 216:0.02390940487384796 217:0.041096631437540054 218:0.0225815586745739 219:0.03162262961268425 220:0.01128201000392437 221:0.03986053541302681 222:0.014648252166807652 223:0.028842810541391373 224:0.007802777457982302 225:0.025807656347751617 226:0.030403584241867065 227:0.039370693266391754 228:0.013083801604807377 229:0.024365799501538277 230:0.03798098862171173 231:0.033217653632164 232:0.01674897037446499 233:0.044585004448890686 234:0.027920499444007874 235:0.07259413599967957 236:0.027728065848350525 237:0.0454811230301857 238:0.07123220711946487 239:0.044811274856328964 240:0.04520457237958908 241:0.04865789785981178 242:0.03585256263613701 243:0.008010120131075382 244:0.02001821994781494 245:0.025730174034833908 246:0.0480852834880352 247:0.05182013660669327 248:0.04729493334889412 249:0.030480772256851196 
-1.0 0:0.22162503004074097 1:0.1264449506998062 2:0.33107873797416687 3:0.24360564351081848 4:0.33019882440567017 5:0.07663512974977493 6:0.2609744369983673 7:0.33418065309524536 8:0.22505329549312592 9:0.18366339802742004 10:0.10673514008522034 11:0.3567090630531311 12:0.33799558877944946 13:0.12929099798202515 14:0.16758999228477478 15:0.31422877311706543 16:0.25664806365966797 17:0.11892665177583694 18:0.1916923075914383 19:0.13227079808712006 20:0.27226001024246216 21:0.17195315659046173 22:0.013589008711278439 23:0.12175411731004715 24:0.3057679831981659 25:0.24374082684516907 26:0.04432588070631027 27:0.143679678440094 28:0.19216422736644745 29:0.28773611783981323 30:0.09640996903181076 31:0.14336200058460236 32:0.22993765771389008 33:0.24238285422325134 34:0.11475973576307297 35:0.11382345855236053 36:0.18946990370750427 37:0.2445221245288849 38:0.14200595021247864 39:0.051806285977363586 40:0.20170721411705017 41:0.2168920934200287 42:0.18778890371322632 43:0.006061800755560398 44:0.18669317662715912 45:0.22914914786815643 46:0.19069984555244446 47:0.014965908601880074 48:0.1429303139448166 49:0.21769274771213531 50:0.16158469021320343 51:0.05735938623547554 52:0.10542270541191101 53:0.17312586307525635 54:0.19313430786132812 55:0.09710860997438431 56:0.0565652959048748 57:0.1852075457572937 58:0.1904308944940567 59:0.12790799140930176 60:0.032522451132535934 61:0.17122820019721985 62:0.18724465370178223 63:0.146342933177948 64:0.019685421139001846 65:0.12218783795833588 66:0.1716606765985489 67:0.1868613362312317 68:0.03357675299048424 69:0.12424710392951965 70:0.18440121412277222 71:0.1687370240688324 72:0.06644811481237411 73:0.10011547803878784 74:0.17475849390029907 75:0.17272935807704926 76:0.07348596304655075 77:0.05669199302792549 78:0.1811845302581787 79:0.14910969138145447 80:0.08782727271318436 81:0.02147725038230419 82:0.11827657371759415 83:0.17128702998161316 84:0.11743532121181488 85:0.012657107785344124 86:0.10294903814792633 87:0.1510692834854126 88:0.15073958039283752 89:0.04195407032966614 90:0.08267603069543839 91:0.14952386915683746 92:0.17482639849185944 93:0.06312638521194458 94:0.06462191790342331 95:0.15306654572486877 96:0.1677320897579193 97:0.07843178510665894 98:0.03166835755109787 99:0.1445281058549881 100:0.1756308376789093 101:0.07976514101028442 102:0.013400997966527939 103:0.12091981619596481 104:0.15852507948875427 105:0.12636494636535645 106:0.02270267903804779 107:0.09627095609903336 108:0.19130535423755646 109:0.12656301259994507 110:0.02492276206612587 111:0.09463033825159073 112:0.14744766056537628 113:0.13761664927005768 114:0.05141497775912285 115:0.05697204917669296 116:0.13768745958805084 117:0.15454617142677307 118:0.06659536808729172 119:0.03762328624725342 120:0.1338028907775879 121:0.15367767214775085 122:0.06682935357093811 123:0.019701408222317696 124:0.10104583203792572 125:0.1625310480594635 126:0.08972567319869995 127:0.017293542623519897 128:0.07446184009313583 129:0.15270103514194489 130:0.12650151550769806 131:0.017827725037932396 132:0.07539382576942444 133:0.12824811041355133 134:0.12335999310016632 135:0.04815410450100899 136:0.034089867025613785 137:0.14815817773342133 138:0.1204504445195198 139:0.0664752721786499 140:0.029605502262711525 141:0.11829511821269989 142:0.13827921450138092 143:0.07813116163015366 144:0.017450498417019844 145:0.11706925183534622 146:0.1422942727804184 147:0.0719887986779213 148:0.013066865503787994 149:0.07832654565572739 150:0.12084409594535828 151:0.12231673300266266 152:0.017898503690958023 153:0.06133933365345001 154:0.12880340218544006 155:0.10630401223897934 156:0.04406527429819107 157:0.04636401683092117 158:0.10967706143856049 159:0.11847689002752304 160:0.06138583645224571 161:0.026179125532507896 162:0.11101585626602173 163:0.111266128718853 164:0.08451465517282486 165:0.021377429366111755 166:0.0933922752737999 167:0.09680043905973434 168:0.08964851498603821 169:0.016706660389900208 170:0.06080897897481918 171:0.1150706484913826 172:0.09683085978031158 173:0.04658760875463486 174:0.04968418553471565 175:0.13785472512245178 176:0.0959242507815361 177:0.04731561988592148 178:0.04372578486800194 179:0.10542450100183487 180:0.09333201497793198 181:0.06860063225030899 182:0.03140587359666824 183:0.07421093434095383 184:0.10873625427484512 185:0.09201110899448395 186:0.010536651127040386 187:0.07371170818805695 188:0.12698133289813995 189:0.0873660147190094 190:0.009581591002643108 191:0.06250961869955063 192:0.11299347877502441 193:0.09061109274625778 194:0.03204188868403435 195:0.045497022569179535 196:0.10881781578063965 197:0.10200400650501251 198:0.04163416475057602 199:0.028238655999302864 200:0.08919033408164978 201:0.11171383410692215 202:0.062379464507102966 203:0.02138659544289112 204:0.08251418173313141 205:0.10002059489488602 206:0.08240791410207748 207:0.007882647216320038 208:0.06961725652217865 209:0.11306411027908325 210:0.08615139871835709 211:0.02391955815255642 212:0.07224103063344955 213:0.10231909900903702 214:0.0923679769039154 215:0.02728772535920143 216:0.04113798588514328 217:0.09974340349435806 218:0.10525880008935928 219:0.03653056174516678 220:0.03142692148685455 221:0.08941252529621124 222:0.10076127201318741 223:0.056577008217573166 224:0.018739990890026093 225:0.08330582827329636 226:0.10371222347021103 227:0.04857689514756203 228:0.011707971803843975 229:0.06494153290987015 230:0.09076732397079468 231:0.07980844378471375 232:0.031060507521033287 233:0.050692904740571976 234:0.10528188198804855 235:0.0796121284365654 236:0.04186267778277397 237:0.044597327709198 238:0.09898495674133301 239:0.0910724401473999 240:0.032391976565122604 241:0.031021352857351303 242:0.07443700730800629 243:0.09017091989517212 244:0.04828233644366264 245:0.00863590743392706 246:0.08194249123334885 247:0.08454577624797821 248:0.06303110718727112 249:0.012028231285512447 
