svm_type c_svc
kernel_type rbf
gamma 0.0
nr_class 2
total_sv 2
rho 0.0
label 1 -1
nr_sv 1 1
SV
1.0 0:0.7509665489196777 1:0.9469867944717407 2:0.7472115755081177 
-1.0 0:1.6199184656143188 1:0.9955503940582275 2:0.7000594735145569 
