svm_type c_svc
kernel_type rbf
gamma 0.2
nr_class 2
total_sv 13
rho 0.04032948632730914
label 1 2
nr_sv 7 6
SV
19.157476323413707 1:8.510618209838867 2:0.3237980008125305 3:0.2299252599477768 4:0.25976139307022095 5:0.18651488423347473 
100.0 1:5.073088645935059 2:0.4875529408454895 3:0.18994084000587463 4:0.18470311164855957 5:0.13780421018600464 
10.625152476612245 1:6.996045112609863 2:0.42162877321243286 3:0.20896543562412262 4:0.22596783936023712 5:0.1434369683265686 
35.817771442422504 1:5.161910057067871 2:0.3174589276313782 3:0.42876511812210083 4:0.16479438543319702 5:0.08898304402828217 
18.26553589062466 1:9.540792465209961 2:0.24102821946144104 3:0.4645785093307495 4:0.16162286698818207 5:0.13276976346969604 
3.9271876940641066 1:4.485823154449463 2:0.3909231424331665 3:0.29669976234436035 4:0.2027454823255539 5:0.1096331998705864 
2.9494237465217634 1:2.8072102069854736 2:0.35918599367141724 3:0.31485214829444885 4:0.1809665709733963 5:0.14499549567699432 
-26.137851297177253 1:5.647549152374268 2:0.6288042664527893 3:0.22352740168571472 4:0.08787298947572708 5:0.05979744344949722 
-0.8076927305571093 1:14.303038597106934 2:0.5063316822052002 3:0.3591935932636261 4:0.08291129022836685 5:0.05156393721699715 
-32.91037586165936 1:8.594610214233398 2:0.5781748294830322 3:0.2937789559364319 4:0.07596175372600555 5:0.05208348482847214 
-9.035856377099527 1:10.214678764343262 2:0.6018776893615723 3:0.2716904282569885 4:0.06396613270044327 5:0.06246583163738251 
-100.0 1:5.125639915466309 2:0.5021250247955322 3:0.3181595206260681 4:0.10273296386003494 5:0.07698334008455276 
-21.850771307165772 1:4.408946514129639 2:0.6495708227157593 3:0.20473767817020416 4:0.06321769207715988 5:0.08247627317905426 
